{
  "in_lbs": [
    79718.0,
    -124.52
  ],
  "in_delta": [
    9920082.0,
    1372.12
  ],
  "weights": [
    [
      [
        0.15294,
        0.42346
      ],
      [
        0.42361,
        -0.35349
      ],
      [
        0.34797,
        -0.57651
      ],
      [
        0.16104,
        -0.3092
      ],
      [
        -0.0086414,
        0.34322
      ],
      [
        -0.0027975,
        -0.44405
      ]
    ],
    [
      [
        0.45261,
        -0.22489,
        -0.4751,
        -0.40019,
        0.20811,
        -0.42769
      ],
      [
        0.44321,
        0.090241,
        0.22388,
        -0.42901,
        0.22088,
        -0.19574
      ],
      [
        -0.61363,
        -0.023813,
        -0.27968,
        -0.021929,
        0.10989,
        0.2015
      ],
      [
        0.77837,
        -0.59807,
        -0.53481,
        0.11762,
        0.41732,
        -0.59862
      ],
      [
        -0.3662,
        0.051312,
        -0.59476,
        -0.3758,
        -0.51258,
        0.48826
      ],
      [
        -0.11879,
        -0.043318,
        -0.43259,
        -0.50248,
        0.49192,
        -0.33389
      ]
    ],
    [
      [
        0.72763,
        0.55033,
        -0.6569,
        0.89423,
        -1.7619,
        0.6612
      ]
    ]
  ],
  "biases": [
    [
      -1.4527,
      0.27104,
      0.67842,
      -0.044048,
      0.6539,
      0.3358
    ],
    [
      0.40773,
      -0.05218,
      -0.38541,
      -0.27694,
      -0.13429,
      0.31778
    ],
    [
      0.42944
    ]
  ],
  "out_lbs": [
    -24511.0
  ],
  "out_delta": [
    453241.0
  ]
}