{
  "in_lbs": [
    10071.0
  ],
  "in_delta": [
    3618429.0
  ],
  "weights": [
    [
      [
        14.25
      ],
      [
        6.899
      ],
      [
        -0.77709
      ],
      [
        -2.4784
      ],
      [
        5.9997
      ],
      [
        10.247
      ]
    ],
    [
      [
        -3.6414,
        0.071284,
        -1.9171,
        -0.31297,
        -0.15614,
        0.8321
      ],
      [
        0.017415,
        1.0999,
        -0.91598,
        -1.1961,
        3.0124,
        10.388
      ],
      [
        -0.069615,
        -0.028055,
        0.84822,
        -0.64787,
        -0.69474,
        2.0745
      ],
      [
        12.541,
        4.8324,
        1.3712,
        1.8532,
        -4.0591,
        2.3287
      ],
      [
        3.7045,
        -0.12317,
        0.096866,
        -1.6649,
        0.11251,
        -0.1119
      ],
      [
        -4.7668,
        -4.7962,
        0.45813,
        0.13257,
        -1.064,
        0.027073
      ]
    ],
    [
      [
        5.2241,
        3.3505,
        -1.2765,
        3.6185,
        2.0763,
        -0.54246
      ]
    ]
  ],
  "biases": [
    [
      -14.569,
      -6.6785,
      0.83538,
      -1.2313,
      6.1627,
      10.762
    ],
    [
      -1.4409,
      0.043876,
      -1.4786,
      4.201,
      -0.56145,
      0.81304
    ],
    [
      -0.6671
    ]
  ],
  "out_lbs": [
    -99388.0
  ],
  "out_delta": [
    555858.0
  ]
}