{
  "in_lbs": [
    10071.0
  ],
  "in_delta": [
    3618429.0
  ],
  "weights": [
    [
      [
        -1.0655
      ],
      [
        -1.6037
      ],
      [
        14.708
      ],
      [
        15.349
      ],
      [
        11.008
      ],
      [
        3.7558
      ]
    ],
    [
      [
        -1.1201,
        2.1864,
        -0.82488,
        -0.14607,
        0.1722,
        0.36487
      ],
      [
        0.46921,
        -0.21057,
        1.0361,
        -2.4604,
        0.09666,
        -0.22539
      ],
      [
        1.5422,
        1.6926,
        -16.91,
        -17.85,
        1.0575,
        0.31465
      ],
      [
        2.4248,
        1.8796,
        0.10657,
        -0.68656,
        -12.457,
        -5.0911
      ],
      [
        0.99112,
        0.51892,
        -6.3535,
        -5.9888,
        0.1466,
        0.21589
      ],
      [
        5.2827,
        4.4319,
        5.8986,
        7.2525,
        -2.886,
        -1.1616
      ]
    ],
    [
      [
        4.3507,
        -1.7139,
        3.3326,
        -2.466,
        -5.4619,
        -2.4013
      ]
    ]
  ],
  "biases": [
    [
      -0.58939,
      2.2291,
      -14.644,
      -15.54,
      11.521,
      4.24
    ],
    [
      -2.0863,
      0.047972,
      -0.97822,
      2.3466,
      0.764,
      6.7328
    ],
    [
      -4.8835
    ]
  ],
  "out_lbs": [
    304030.0
  ],
  "out_delta": [
    208950.0
  ]
}