{
  "in_lbs": [
    10012.0,
    1100.6
  ],
  "in_delta": [
    9989988.0,
    2385.0
  ],
  "weights": [
    [
      [
        1.1402,
        0.232
      ],
      [
        -1.4529,
        0.036351
      ],
      [
        -0.0098499,
        -0.30076
      ],
      [
        1.3175,
        -1.5898
      ],
      [
        -15.283,
        0.17377
      ],
      [
        0.39047,
        -1.7728
      ]
    ],
    [
      [
        0.34378,
        2.7284,
        -1.749,
        0.39034,
        0.40863,
        -0.69552
      ],
      [
        -3.3951,
        -2.5184,
        3.337,
        -0.77507,
        10.702,
        0.91221
      ],
      [
        -2.7839,
        -6.5617,
        2.7591,
        -0.7385,
        10.313,
        0.82561
      ],
      [
        0.067162,
        0.39542,
        1.7397,
        -0.0032441,
        0.3304,
        0.012618
      ],
      [
        1.0563,
        -2.4955,
        -2.9749,
        0.1854,
        0.4892,
        0.24002
      ],
      [
        0.26951,
        -0.73204,
        0.51673,
        0.023282,
        -0.8961,
        -0.021778
      ]
    ],
    [
      [
        -0.97498,
        1.7711,
        -7.2477,
        -8.5663,
        2.7634,
        -2.9241
      ]
    ]
  ],
  "biases": [
    [
      1.0096,
      -1.6184,
      1.0481,
      -0.071267,
      -15.95,
      -1.3386
    ],
    [
      1.1884,
      2.3013,
      1.2231,
      -0.96288,
      -2.4748,
      -1.3336
    ],
    [
      -3.3701
    ]
  ],
  "out_lbs": [
    353960.0
  ],
  "out_delta": [
    778240.0
  ]
}