{
  "in_lbs": [
    79718.0,
    -24511.0
  ],
  "in_delta": [
    9920082.0,
    453241.0
  ],
  "weights": [
    [
      [
        -3.5449,
        3.0134
      ],
      [
        1.1336,
        -0.85863
      ],
      [
        -0.18582,
        -0.051165
      ],
      [
        -0.033796,
        -1.0258
      ],
      [
        0.09763,
        -0.93147
      ],
      [
        -0.16005,
        0.38238
      ]
    ],
    [
      [
        -0.054706,
        -0.75812,
        0.26941,
        0.11691,
        0.10319,
        -0.285
      ],
      [
        -0.054991,
        0.25924,
        -0.060092,
        0.21312,
        0.71671,
        -0.70552
      ],
      [
        0.48616,
        -0.073545,
        -0.72057,
        -1.3487,
        0.063689,
        -0.24673
      ],
      [
        0.24238,
        0.25592,
        0.28755,
        -1.0806,
        0.74391,
        -0.38816
      ],
      [
        2.8296,
        -0.94501,
        0.37334,
        0.068373,
        -0.73946,
        0.77393
      ],
      [
        -2.7644,
        -0.067271,
        -0.13244,
        0.41279,
        -1.6993,
        -0.24973
      ]
    ],
    [
      [
        0.71706,
        1.3472,
        -0.4742,
        1.3278,
        -0.9691,
        -2.5329
      ]
    ]
  ],
  "biases": [
    [
      -4.1442,
      1.4983,
      -0.48484,
      0.91732,
      -0.93857,
      -0.46287
    ],
    [
      0.64872,
      0.15294,
      0.082325,
      0.65603,
      -0.04237,
      -1.3322
    ],
    [
      1.067
    ]
  ],
  "out_lbs": [
    0.061193
  ],
  "out_delta": [
    0.05208700000000001
  ]
}