{
  "in_lbs": [
    10012.0,
    353960.0
  ],
  "in_delta": [
    9989988.0,
    778240.0
  ],
  "weights": [
    [
      [
        4.3374,
        -3.7563
      ],
      [
        -4.1253,
        7.473
      ],
      [
        -5.1997,
        4.3618
      ],
      [
        0.062069,
        0.44143
      ],
      [
        -0.0092359,
        -0.3695
      ],
      [
        -3.1104,
        1.8661
      ]
    ],
    [
      [
        -3.0022,
        -1.9334,
        -1.9528,
        -1.0651,
        1.5079,
        0.66034
      ],
      [
        -5.263,
        -2.2154,
        -2.7997,
        -0.33551,
        2.3774,
        0.60622
      ],
      [
        -0.16779,
        0.063169,
        0.45873,
        1.0011,
        1.3663,
        -0.6418
      ],
      [
        1.0575,
        0.68368,
        -0.31448,
        0.070446,
        -0.063723,
        -0.64847
      ],
      [
        -0.30327,
        0.090065,
        0.010689,
        -0.33656,
        0.049536,
        -0.0025545
      ],
      [
        3.2717,
        1.8022,
        1.4222,
        0.48532,
        -2.1954,
        1.3922
      ]
    ],
    [
      [
        -15.519,
        -0.70233,
        6.3179,
        -7.8045,
        -4.708,
        -7.9902
      ]
    ]
  ],
  "biases": [
    [
      -1.3223,
      3.7822,
      0.929,
      -0.25465,
      -0.1229,
      -1.0787
    ],
    [
      -2.9654,
      -1.1044,
      1.08,
      2.1029,
      -0.52649,
      3.4011
    ],
    [
      -6.7925
    ]
  ],
  "out_lbs": [
    0.012381
  ],
  "out_delta": [
    0.06003399999999999
  ]
}