{
  "in_lbs": [
    10012.0,
    353960.0
  ],
  "in_delta": [
    9989988.0,
    778240.0
  ],
  "weights": [
    [
      [
        -3.002,
        3.5722
      ],
      [
        -1.0174,
        -0.10017
      ],
      [
        0.92598,
        0.52209
      ],
      [
        -0.1392,
        1.5281
      ],
      [
        2.4419,
        -2.9857
      ],
      [
        1.0609,
        0.0091601
      ]
    ],
    [
      [
        0.0099339,
        0.70901,
        -0.31573,
        3.1375,
        -0.15023,
        0.96865
      ],
      [
        0.16057,
        -0.99939,
        -2.2588,
        1.1919,
        0.12914,
        2.0947
      ],
      [
        0.53826,
        -0.26662,
        -0.0029717,
        1.5217,
        -0.60759,
        0.93775
      ],
      [
        1.483,
        0.74395,
        -2.0473,
        -2.6149,
        0.24333,
        2.4768
      ],
      [
        -0.57928,
        0.3528,
        -0.78823,
        -1.4613,
        0.23557,
        1.4557
      ],
      [
        -0.98949,
        -1.8359,
        0.025773,
        1.7012,
        0.020767,
        0.51064
      ]
    ],
    [
      [
        0.70849,
        0.33162,
        3.5887,
        -0.66413,
        3.8794,
        -3.3861
      ]
    ]
  ],
  "biases": [
    [
      2.2417,
      0.35019,
      1.327,
      1.7407,
      -0.98503,
      1.4188
    ],
    [
      -3.7799,
      -1.321,
      -1.2948,
      -1.3652,
      0.04645,
      1.7044
    ],
    [
      2.3919
    ]
  ],
  "out_lbs": [
    14737.0
  ],
  "out_delta": [
    142393.0
  ]
}