{
  "in_lbs": [
    79718.0,
    -24511.0
  ],
  "in_delta": [
    9920082.0,
    453241.0
  ],
  "weights": [
    [
      [
        -0.014814,
        0.55671
      ],
      [
        0.69865,
        1.7884
      ],
      [
        0.29408,
        -1.0981
      ],
      [
        -0.7011,
        0.51982
      ],
      [
        -0.27612,
        0.95048
      ],
      [
        -2.6579,
        1.3324
      ]
    ],
    [
      [
        -0.40829,
        -0.057142,
        1.1141,
        0.75737,
        0.15692,
        0.14104
      ],
      [
        0.059745,
        -0.64099,
        1.6357,
        -0.62736,
        -0.46039,
        -0.54603
      ],
      [
        0.62944,
        0.24595,
        -0.068101,
        0.90182,
        -0.70697,
        -0.88969
      ],
      [
        0.28384,
        0.035153,
        -1.1293,
        -1.6207,
        -0.21779,
        -0.22745
      ],
      [
        0.19383,
        -0.28953,
        0.58672,
        1.4303,
        0.54765,
        -1.0971
      ],
      [
        0.095587,
        -3.056,
        -0.16435,
        -0.7537,
        -0.98907,
        -3.8693
      ]
    ],
    [
      [
        -2.6791,
        -1.1167,
        -0.50423,
        -1.254,
        0.36901,
        -1.232
      ]
    ]
  ],
  "biases": [
    [
      0.2031,
      -0.69967,
      1.7198,
      -1.1596,
      -0.11074,
      -2.8026
    ],
    [
      -0.53513,
      -0.0028984,
      0.72825,
      -0.41249,
      0.8776,
      1.6185
    ],
    [
      1.1703
    ]
  ],
  "out_lbs": [
    3407.6
  ],
  "out_delta": [
    26830.4
  ]
}