{
  "in_lbs": [
    79718.0,
    -24511.0
  ],
  "in_delta": [
    9920082.0,
    453241.0
  ],
  "weights": [
    [
      [
        0.10837,
        -0.40771
      ],
      [
        0.41478,
        1.0005
      ],
      [
        -2.9466,
        -0.95995
      ],
      [
        -2.3744,
        4.0148
      ],
      [
        -0.035652,
        1.3739
      ],
      [
        0.047915,
        -0.903
      ]
    ],
    [
      [
        0.87489,
        -0.90533,
        -0.96652,
        -6.3387,
        -0.61196,
        0.4958
      ],
      [
        -0.686,
        -0.10145,
        0.014,
        -0.2918,
        0.13092,
        0.55848
      ],
      [
        1.9062,
        0.19641,
        -0.043232,
        1.0647,
        -1.559,
        -1.1884
      ],
      [
        -1.0991,
        2.5057,
        2.1764,
        5.2854,
        -1.4736,
        -0.6113
      ],
      [
        2.0669,
        -1.0287,
        0.052639,
        -2.2306,
        -0.97122,
        -0.49581
      ],
      [
        1.4503,
        0.17206,
        0.012821,
        2.3633,
        -1.76,
        -0.5862
      ]
    ],
    [
      [
        1.5182,
        2.1487,
        0.76218,
        4.3956,
        0.83509,
        1.8833
      ]
    ]
  ],
  "biases": [
    [
      0.60534,
      -0.23764,
      0.15084,
      -4.8996,
      2.2947,
      -1.1005
    ],
    [
      0.19024,
      0.51671,
      0.5269,
      0.1007,
      0.12196,
      1.1895
    ],
    [
      2.7796
    ]
  ],
  "out_lbs": [
    2.9702
  ],
  "out_delta": [
    7.0808
  ]
}