{
  "in_lbs": [
    10012.0,
    353960.0
  ],
  "in_delta": [
    9989988.0,
    778240.0
  ],
  "weights": [
    [
      [
        5.5338,
        0.55677
      ],
      [
        -0.80482,
        0.92607
      ],
      [
        -6.277,
        2.1249
      ],
      [
        -3.271,
        3.7682
      ],
      [
        17.492,
        3.866
      ],
      [
        0.36299,
        -2.1681
      ]
    ],
    [
      [
        -0.0096536,
        0.049926,
        -0.0014371,
        -0.15116,
        -0.0024832,
        -0.30676
      ],
      [
        1.8845,
        2.0713,
        6.6096,
        0.8237,
        1.5768,
        -4.0998
      ],
      [
        1.8827,
        2.1334,
        6.7261,
        0.87701,
        1.4934,
        -1.7394
      ],
      [
        1.0259,
        -0.30463,
        0.79156,
        -1.062,
        -0.033069,
        -1.1189
      ],
      [
        -1.6597,
        -2.2409,
        -6.2523,
        -0.7797,
        0.5656,
        5.0507
      ],
      [
        0.9232,
        -0.29687,
        0.70428,
        1.3731,
        -0.014373,
        0.5438
      ]
    ],
    [
      [
        -1.7962,
        -9.3674,
        3.9034,
        0.94286,
        -5.9737,
        -0.9154
      ]
    ]
  ],
  "biases": [
    [
      2.0851,
      0.62737,
      -1.0751,
      2.0437,
      8.3504,
      -2.5031
    ],
    [
      -0.43954,
      -0.85898,
      1.5808,
      1.3448,
      -0.22008,
      0.47512
    ],
    [
      -1.9691
    ]
  ],
  "out_lbs": [
    0.69996
  ],
  "out_delta": [
    10.749039999999999
  ]
}