{
  "in_lbs": [
    10071.0
  ],
  "in_delta": [
    3618429.0
  ],
  "weights": [
    [
      [
        -0.23888
      ],
      [
        9.103
      ],
      [
        9.2103
      ],
      [
        -1.7025
      ],
      [
        1.7971
      ],
      [
        7.5026
      ]
    ],
    [
      [
        -1.192,
        8.1669,
        4.2924,
        -1.0142,
        0.79534,
        1.628
      ],
      [
        0.51261,
        -0.94363,
        0.84407,
        1.5093,
        -2.0237,
        -0.022114
      ],
      [
        -0.089919,
        -1.9404,
        -2.171,
        -0.35674,
        0.33949,
        -0.047327
      ],
      [
        -0.69993,
        4.6198,
        6.8726,
        -0.066905,
        0.86936,
        1.0608
      ],
      [
        -2.5821,
        -5.2964,
        -11.019,
        -3.8755,
        -5.3978,
        12.508
      ],
      [
        -1.1253,
        0.27225,
        -0.33206,
        -0.12964,
        1.2955,
        2.5884
      ]
    ],
    [
      [
        -9.135,
        4.4593,
        0.50457,
        0.61184,
        -4.1076,
        -2.5465
      ]
    ]
  ],
  "biases": [
    [
      0.088231,
      -9.348,
      -9.4083,
      3.527,
      3.8848,
      7.7481
    ],
    [
      0.33903,
      0.064272,
      0.49869,
      0.74818,
      -6.7114,
      0.36787
    ],
    [
      -0.95307
    ]
  ],
  "out_lbs": [
    233.69
  ],
  "out_delta": [
    409.55
  ]
}