{
  "in_lbs": [
    79718.0,
    -24511.0
  ],
  "in_delta": [
    9920082.0,
    453241.0
  ],
  "weights": [
    [
      [
        0.056639,
        -0.36748
      ],
      [
        2.0077,
        1.9765
      ],
      [
        0.16186,
        -0.34761
      ],
      [
        -0.093331,
        0.46548
      ],
      [
        0.0072705,
        -0.31791
      ],
      [
        -1.5331,
        2.0701
      ]
    ],
    [
      [
        1.7303,
        0.0010105,
        -0.59825,
        -0.68988,
        0.94674,
        -0.33399
      ],
      [
        -1.0487,
        0.00075542,
        -0.14074,
        -0.094477,
        -1.2313,
        -0.086396
      ],
      [
        -0.92246,
        -0.0052334,
        -0.037693,
        -0.79426,
        2.6085,
        0.30635
      ],
      [
        -0.52263,
        0.65923,
        0.056352,
        0.022028,
        0.97103,
        -1.1245
      ],
      [
        0.39243,
        0.012099,
        -0.52776,
        -0.31478,
        1.7341,
        0.093108
      ],
      [
        0.69488,
        0.79008,
        0.52611,
        0.20774,
        -0.81897,
        -0.80511
      ]
    ],
    [
      [
        -0.8623,
        2.141,
        -1.5168,
        0.00059916,
        -0.61462,
        0.021469
      ]
    ]
  ],
  "biases": [
    [
      1.7625,
      -1.724,
      -0.0082056,
      -0.1458,
      -0.66614,
      -4.5774
    ],
    [
      -0.8704,
      0.31472,
      0.21398,
      -0.03581,
      -0.61042,
      1.5891
    ],
    [
      -1.7409
    ]
  ],
  "out_lbs": [
    -124.52
  ],
  "out_delta": [
    1372.12
  ]
}