{
  "in_lbs": [
    10071.0
  ],
  "in_delta": [
    3618429.0
  ],
  "weights": [
    [
      [
        0.49059
      ],
      [
        -35.914
      ],
      [
        -12.369
      ],
      [
        1.4466
      ],
      [
        -5.7756
      ],
      [
        -7.5991
      ]
    ],
    [
      [
        1.0656,
        -1.909,
        -13.071,
        0.19198,
        0.21855,
        -10.155
      ],
      [
        3.2226,
        -0.45183,
        3.998,
        0.41133,
        -0.12446,
        1.5248
      ],
      [
        -1.1593,
        7.8964,
        2.5025,
        1.938,
        -0.60033,
        -1.5434
      ],
      [
        1.9401,
        -1.1757,
        0.076906,
        1.2964,
        2.2171,
        0.046966
      ],
      [
        1.9923,
        -34.9,
        -3.3998,
        3.8384,
        -12.687,
        -3.4479
      ],
      [
        -0.31396,
        1.0227,
        -5.1735,
        0.41671,
        -1.897,
        0.68981
      ]
    ],
    [
      [
        -7.4957,
        -4.7553,
        3.9649,
        3.7976,
        -6.2394,
        -8.1156
      ]
    ]
  ],
  "biases": [
    [
      0.18476,
      36.469,
      -12.754,
      -0.99546,
      5.5526,
      -7.5616
    ],
    [
      0.29449,
      2.9012,
      -1.4515,
      1.6327,
      2.5804,
      -0.11327
    ],
    [
      -2.0368
    ]
  ],
  "out_lbs": [
    1335.4
  ],
  "out_delta": [
    142.0999999999999
  ]
}