{
  "in_lbs": [
    10071.0
  ],
  "in_delta": [
    3618429.0
  ],
  "weights": [
    [
      [
        11.301
      ],
      [
        8.5911
      ],
      [
        -0.19297
      ],
      [
        -1.1694
      ],
      [
        -7.8007
      ],
      [
        -1.3046
      ]
    ],
    [
      [
        -0.15223,
        0.073686,
        -0.1384,
        -0.77532,
        -1.597,
        -1.0651
      ],
      [
        -0.017247,
        -0.9167,
        1.0226,
        3.4498,
        7.8071,
        4.1142
      ],
      [
        2.1508,
        -1.319,
        -1.9549,
        -1.3157,
        -0.50475,
        -0.11061
      ],
      [
        13.033,
        8.9478,
        -0.37559,
        -1.1506,
        -0.96653,
        -0.89447
      ],
      [
        -0.33544,
        -0.55961,
        0.92527,
        2.1872,
        9.0098,
        2.6358
      ],
      [
        -1.5173,
        0.99366,
        -0.18553,
        -1.7372,
        -0.031203,
        0.67935
      ]
    ],
    [
      [
        1.0713,
        -4.8233,
        1.7247,
        2.9964,
        1.3526,
        2.9581
      ]
    ]
  ],
  "biases": [
    [
      -11.838,
      -8.6127,
      0.79032,
      -1.6138,
      -8.0022,
      -1.2392
    ],
    [
      0.38485,
      -0.32028,
      -0.62079,
      0.87071,
      0.16586,
      -0.68603
    ],
    [
      -1.725
    ]
  ],
  "out_lbs": [
    -417.79
  ],
  "out_delta": [
    1732.79
  ]
}