{
  "in_lbs": [
    10012.0,
    353960.0
  ],
  "in_delta": [
    9989988.0,
    778240.0
  ],
  "weights": [
    [
      [
        -0.089094,
        -0.74346
      ],
      [
        -0.0062238,
        0.068728
      ],
      [
        -0.84856,
        1.4491
      ],
      [
        0.92651,
        0.0033011
      ],
      [
        -16.629,
        -0.0056395
      ],
      [
        -5.7286,
        -0.0067672
      ]
    ],
    [
      [
        0.006175,
        2.2902,
        -0.094995,
        0.33423,
        -0.19998,
        -0.16328
      ],
      [
        -0.079015,
        0.31663,
        -0.0016876,
        0.79606,
        10.523,
        -0.2873
      ],
      [
        -0.5818,
        -0.68753,
        0.11254,
        -1.4537,
        0.56134,
        0.67134
      ],
      [
        1.3695,
        0.16262,
        -0.47047,
        1.5059,
        -0.78821,
        -0.85443
      ],
      [
        -0.54772,
        1.8454,
        0.4485,
        -2.3779,
        -0.84757,
        -0.42897
      ],
      [
        -0.049933,
        0.33857,
        0.0016977,
        0.35812,
        9.8243,
        -1.2102
      ]
    ],
    [
      [
        4.1347,
        -2.2551,
        2.0129,
        -0.46109,
        0.45514,
        7.1672
      ]
    ]
  ],
  "biases": [
    [
      -1.4328,
      0.26156,
      0.91762,
      1.3308,
      -17.248,
      -6.5906
    ],
    [
      -0.91842,
      4.4293,
      0.63795,
      -1.3481,
      0.71934,
      3.0347
    ],
    [
      5.0724
    ]
  ],
  "out_lbs": [
    1100.6
  ],
  "out_delta": [
    2385.0
  ]
}