{
  "in_lbs": [
    79718.0,
    -124.52
  ],
  "in_delta": [
    9920082.0,
    1372.12
  ],
  "weights": [
    [
      [
        -0.081664,
        -0.41873
      ],
      [
        -0.041584,
        1.5119
      ],
      [
        -0.053198,
        0.16159
      ],
      [
        0.39222,
        -0.7025
      ],
      [
        -0.10397,
        -0.0056961
      ],
      [
        -1.6767,
        3.1679
      ]
    ],
    [
      [
        0.31386,
        -0.73827,
        0.10002,
        0.2584,
        0.70165,
        -0.50874
      ],
      [
        0.61029,
        -0.32316,
        -1.0421,
        0.087667,
        0.19027,
        0.92847
      ],
      [
        0.14955,
        0.50359,
        -0.6784,
        -0.088264,
        0.27915,
        -1.442
      ],
      [
        -1.3255,
        -1.2735,
        1.1684,
        -0.083302,
        -0.90398,
        -0.96323
      ],
      [
        -0.098632,
        -0.29963,
        0.065849,
        0.27894,
        -0.1405,
        0.013525
      ],
      [
        -0.042052,
        -0.08921,
        -0.12403,
        -0.05518,
        0.05755,
        0.12169
      ]
    ],
    [
      [
        -1.4196,
        -2.1105,
        -1.6546,
        1.5666,
        0.42496,
        -0.014592
      ]
    ]
  ],
  "biases": [
    [
      0.48984,
      -1.3168,
      0.042174,
      0.16177,
      -0.62345,
      -4.2362
    ],
    [
      0.54651,
      0.70732,
      -0.67899,
      -0.72245,
      0.048824,
      -0.086853
    ],
    [
      0.58108
    ]
  ],
  "out_lbs": [
    250.0
  ],
  "out_delta": [
    157.81
  ]
}