{
  "in_lbs": [
    79718.0,
    -24511.0
  ],
  "in_delta": [
    9920082.0,
    453241.0
  ],
  "weights": [
    [
      [
        0.070212,
        -0.95045
      ],
      [
        0.08506,
        -0.4465
      ],
      [
        0.47149,
        1.2011
      ],
      [
        0.35113,
        -0.81915
      ],
      [
        1.1957,
        -1.7849
      ],
      [
        0.11054,
        -0.013512
      ]
    ],
    [
      [
        0.86856,
        0.33724,
        -0.7884,
        -0.73588,
        -0.17294,
        -0.82604
      ],
      [
        0.52598,
        -1.1861,
        -1.0771,
        -1.6361,
        -2.2694,
        0.5044
      ],
      [
        -0.10457,
        -0.29527,
        -1.0343,
        -0.58921,
        -0.77334,
        0.64785
      ],
      [
        0.3714,
        -0.11773,
        1.2908,
        0.025139,
        -1.3082,
        0.23965
      ],
      [
        0.21626,
        -1.126,
        0.3779,
        -0.89544,
        -0.077801,
        -0.49292
      ],
      [
        -0.16702,
        1.5514,
        -0.8649,
        -2.2676,
        -0.8538,
        -0.4362
      ]
    ],
    [
      [
        -2.2722,
        0.7017,
        1.7241,
        -0.5403,
        0.91142,
        -2.3539
      ]
    ]
  ],
  "biases": [
    [
      1.6885,
      -0.44024,
      -1.6496,
      1.2274,
      2.913,
      0.21262
    ],
    [
      0.256,
      -0.05542,
      0.36947,
      0.97595,
      0.84006,
      1.3473
    ],
    [
      -0.94034
    ]
  ],
  "out_lbs": [
    250.0
  ],
  "out_delta": [
    157.81
  ]
}