{
  "in_lbs": [
    10012.0,
    353960.0
  ],
  "in_delta": [
    9989988.0,
    778240.0
  ],
  "weights": [
    [
      [
        -0.97229,
        -0.40787
      ],
      [
        -3.3613,
        4.6605
      ],
      [
        -1.731,
        1.1664
      ],
      [
        -0.050104,
        -0.2268
      ],
      [
        -0.48657,
        -0.24516
      ],
      [
        0.25068,
        1.7222
      ]
    ],
    [
      [
        1.2221,
        0.81621,
        0.91777,
        4.5293,
        0.78967,
        -0.45398
      ],
      [
        -0.41987,
        -0.58702,
        0.22503,
        3.7522,
        2.6933,
        -1.414
      ],
      [
        -1.2921,
        0.78097,
        1.2523,
        1.67,
        3.1646,
        -2.3739
      ],
      [
        0.30349,
        -0.42449,
        -0.22259,
        0.71827,
        -0.99787,
        -3.9937
      ],
      [
        -0.079468,
        0.14577,
        0.093862,
        1.7293,
        -0.54205,
        0.24081
      ],
      [
        -0.1808,
        -0.49477,
        -0.33158,
        1.9027,
        2.2702,
        -0.10907
      ]
    ],
    [
      [
        -1.2143,
        -0.075921,
        0.084806,
        -0.36403,
        -1.6883,
        -0.32011
      ]
    ]
  ],
  "biases": [
    [
      1.6721,
      2.9679,
      1.0585,
      0.44656,
      -0.98078,
      2.8402
    ],
    [
      -5.2892,
      2.0302,
      3.0259,
      1.9607,
      -1.3072,
      2.0679
    ],
    [
      -0.72977
    ]
  ],
  "out_lbs": [
    251.94
  ],
  "out_delta": [
    348.06
  ]
}