{
  "in_lbs": [
    10012.0,
    1100.6
  ],
  "in_delta": [
    9989988.0,
    2385.0
  ],
  "weights": [
    [
      [
        10.536,
        -0.21479
      ],
      [
        -0.84787,
        -0.069101
      ],
      [
        3.422,
        -0.63994
      ],
      [
        0.026606,
        0.3576
      ],
      [
        -1.5157,
        2.3707
      ],
      [
        0.041029,
        0.66566
      ]
    ],
    [
      [
        18.521,
        -1.9587,
        3.2518,
        9.571,
        0.53046,
        3.7884
      ],
      [
        -0.4686,
        0.61209,
        -1.0611,
        -10.062,
        0.23166,
        4.1309
      ],
      [
        0.039231,
        0.1855,
        -0.0063914,
        -0.6799,
        -0.0022535,
        -0.17258
      ],
      [
        -3.5052,
        0.71467,
        2.6106,
        -1.3436,
        -1.9881,
        -2.2035
      ],
      [
        -2.0498,
        -0.65042,
        -1.8726,
        -4.9843,
        -1.8787,
        -0.42
      ],
      [
        -3.8492,
        0.53817,
        -1.7256,
        -5.4096,
        -2.3815,
        0.31019
      ]
    ],
    [
      [
        3.9925,
        -0.5811,
        -3.6017,
        4.5257,
        -2.4427,
        -1.6655
      ]
    ]
  ],
  "biases": [
    [
      10.741,
      -1.4532,
      3.9628,
      -0.30818,
      1.0017,
      -0.30848
    ],
    [
      -0.46347,
      -1.1479,
      0.05661,
      -2.3462,
      -0.95192,
      1.2218
    ],
    [
      -2.7606
    ]
  ],
  "out_lbs": [
    251.94
  ],
  "out_delta": [
    348.06
  ]
}