{
  "in_lbs": [
    79718.0,
    -24511.0
  ],
  "in_delta": [
    9920082.0,
    453241.0
  ],
  "weights": [
    [
      [
        0.054122,
        -0.83825
      ],
      [
        -0.23696,
        0.75739
      ],
      [
        0.24819,
        -1.5538
      ],
      [
        -1.3865,
        1.805
      ],
      [
        -0.49102,
        1.7987
      ],
      [
        3.155,
        -2.5553
      ]
    ],
    [
      [
        -0.28563,
        0.15449,
        0.021547,
        0.39806,
        -0.3763,
        -0.65649
      ],
      [
        1.0178,
        1.1813,
        0.38922,
        -0.77483,
        -0.643,
        0.55062
      ],
      [
        0.83963,
        -0.38188,
        0.8282,
        2.0014,
        0.35287,
        -0.2691
      ],
      [
        0.041957,
        -1.2921,
        -1.2935,
        0.46783,
        1.9139,
        -3.3739
      ],
      [
        0.60697,
        0.84381,
        1.4135,
        0.49334,
        0.57492,
        -0.94009
      ],
      [
        0.59023,
        -3.0182,
        0.28787,
        0.40123,
        0.30103,
        -1.3646
      ]
    ],
    [
      [
        1.0758,
        0.28318,
        0.7092,
        2.041,
        -1.3162,
        -0.79656
      ]
    ]
  ],
  "biases": [
    [
      -0.69239,
      -0.97061,
      0.88592,
      -1.7993,
      -1.0849,
      4.5556
    ],
    [
      0.72531,
      -1.387,
      -0.26608,
      -0.91415,
      0.41524,
      0.75125
    ],
    [
      1.6493
    ]
  ],
  "out_lbs": [
    0.0016202
  ],
  "out_delta": [
    0.0018295
  ]
}