{
  "in_lbs": [
    10012.0,
    353960.0
  ],
  "in_delta": [
    9989988.0,
    778240.0
  ],
  "weights": [
    [
      [
        -1.0381,
        0.56174
      ],
      [
        -1.537,
        2.0608
      ],
      [
        -2.2116,
        0.73668
      ],
      [
        5.4717,
        -0.021955
      ],
      [
        -1.3835,
        0.066382
      ],
      [
        -27.075,
        -0.010262
      ]
    ],
    [
      [
        -1.5808,
        -0.026721,
        -0.061918,
        2.7894,
        -0.80562,
        -0.6701
      ],
      [
        -0.76429,
        0.11241,
        0.26057,
        3.2628,
        2.8993,
        4.817
      ],
      [
        0.3919,
        0.068959,
        0.18345,
        -0.13626,
        3.196,
        12.397
      ],
      [
        0.3117,
        2.7667,
        -1.7827,
        1.0817,
        2.1677,
        -7.9787
      ],
      [
        0.36266,
        -0.35883,
        -1.396,
        -1.2478,
        1.834,
        0.93083
      ],
      [
        -4.5498,
        -0.048819,
        0.297,
        0.45857,
        -6.2403,
        -31.441
      ]
    ],
    [
      [
        -1.0653,
        2.9488,
        4.7812,
        4.4176,
        -5.579,
        -8.41
      ]
    ]
  ],
  "biases": [
    [
      0.90992,
      0.68155,
      -1.4604,
      6.183,
      -1.2514,
      -27.424
    ],
    [
      0.63536,
      -1.4081,
      1.9362,
      -1.086,
      -2.409,
      -3.7161
    ],
    [
      6.2101
    ]
  ],
  "out_lbs": [
    0.0023457
  ],
  "out_delta": [
    7.2837543
  ]
}